-1.67322 
-2.44497 
0.9386 
-0.48826 
-1.81974 
-1.05569 
-3.49331 
-1.14863 
1.88119 
1.06059 
3.07825 
4.57996 
1.01917 
-1.9903 
1.47374 
1.17451 
2.0378 
-1.49815 
1.04777 
1.56615 
0.535525 
2.93157 
-1.23426 
-1.06167 
7.5603 
-3.26561 
1.00423 
1.18575 
5.1159 
-2.11655 
-1.518 
-2.56943 
-0.4324 
1.7618 
-2.46233 
-1.55808 
-1.59158 
-0.8695 
1.64893 
0.749396 
5.17004 
7.38574 
0.607424 
-2.70962 
1.39319 
4.14533 
3.13578 
-1.18199 
0.876982 
0.382425 
1.83968 
4.00483 
-2.70887 
-1.30445 
0.936435 
-1.09115 
0.657016 
1.11749 
1.03763 
-1.61282 
-1.64982 
0.212954 
0.941463 
1.19295 
-1.2526 
-1.51399 
-2.83592 
-0.667718 
1.5086 
0.774989 
0.55956 
3.6776 
0.592357 
-1.48845 
1.21719 
3.27262 
-0.0178147 
-0.446905 
0.932119 
1.77697 
2.00328 
2.66471 
-2.3666 
-1.78007 
6.90673 
-1.04352 
0.711705 
1.08669 
1.1512 
-2.63455 
-1.59929 
-3.56373 
-1.12982 
1.5452 
-0.741089 
-1.61316 
0.127349 
-0.883587 
2.15895 
1.38238 
3.20944 
1.89112 
1.25589 
-2.1446 
1.82339 
3.41153 
1.25883 
-0.593746 
1.46263 
0.174115 
2.28909 
2.24814 
-1.31958 
-0.442179 
5.71015 
-3.18129 
1.31394 
1.61733 
-0.0621237 
-2.0032 
-1.69379 
-0.961418 
-0.509082 
-1.04216 
-2.45852 
-0.906501 
-2.21788 
-1.57889 
2.1038 
1.61415 
3.90686 
6.32003 
1.26981 
-0.952556 
1.86595 
4.32238 
3.44076 
-0.603533 
1.70224 
0.820786 
-1.06684 
2.00803 
-1.62524 
-1.23649 
4.76693 
-0.790589 
1.4808 
1.76745 
1.14304 
-5.13201 
